<?xml version="1.0" encoding="UTF-8" standalone="yes"?>
<PMML xmlns="http://www.dmg.org/PMML-4_3" version="4.3">
	<Header>
		<Application name="JPMML-SkLearn" version="1.4.0"/>
		<Timestamp>2018-02-13T05:59:41Z</Timestamp>
	</Header>
	<MiningBuildTask>
		<Extension>PMMLPipeline(steps=[('mapper', DataFrameMapper(default=False, df_out=False,
        features=[('product_category', [CategoricalDomain(), &lt;com.highradius.transformers.CustomTransformFunctionGenerator object at 0x0000016610531780&gt;])],
        input_df=False, sparse=False)),
       ('estimator', RandomForestClassifier(bootstrap=True, class_weight=None, criterion='gini',
            max_depth=15, max_features='auto', max_leaf_nodes=None,
            min_impurity_split=1e-07, min_samples_leaf=1,
            min_samples_split=40, min_weight_fraction_leaf=0.0,
            n_estimators=50, n_jobs=1, oob_score=False, random_state=9,
            verbose=0, warm_start=False))])</Extension>
	</MiningBuildTask>
	<DataDictionary>
		<DataField name="labels" optype="categorical" dataType="integer">
			<Value value="-1"/>
			<Value value="1"/>
		</DataField>
		<DataField name="product_category" optype="categorical" dataType="string">
			<Value value="APPLIANCE"/>
			<Value value="BABY"/>
			<Value value="BATTERIES"/>
			<Value value="BEAUTY"/>
			<Value value="CHEMICAL"/>
			<Value value="COSMETICS"/>
			<Value value="FABRIC"/>
			<Value value="FAMILY"/>
			<Value value="FEM CARE"/>
			<Value value="GROOMING"/>
			<Value value="HAIR"/>
			<Value value="MULTI GROC"/>
			<Value value="MULTI GROH"/>
			<Value value="MULTI HABA"/>
			<Value value="MULTI PAPE"/>
			<Value value="PGP"/>
			<Value value="PHC"/>
			<Value value="PROF SALON"/>
			<Value value="UNIDENTIFI"/>
		</DataField>
	</DataDictionary>
	<TransformationDictionary>
		<DerivedField name="com.highradius.ai.jpmml.functions.HistoryXref(product_category)" optype="categorical" dataType="string">
			<Apply function="com.highradius.ai.jpmml.functions.HistoryXref">
				<FieldRef field="product_category"/>
				<Constant>'others': 0.26779624893435633</Constant>
				<Constant> 'PROF BATTE': 0.064007421150278299</Constant>
				<Constant> 'PHC': 0.11814305562209552</Constant>
				<Constant> 'PGP': 0.28293496386881606</Constant>
				<Constant> 'MULTI PAPE': 0.42607526881720431</Constant>
				<Constant> 'MULTI HABA': 0.047592322370636438</Constant>
				<Constant> 'MULTI GROH': 0.1632506979074706</Constant>
				<Constant> 'MULTI GROC': 0.22681636618806006</Constant>
				<Constant> 'HAIR': 0.2270337922403004</Constant>
				<Constant> 'GROOMING': 0.20507324044301534</Constant>
				<Constant> 'FEM CARE': 0.22964049889948646</Constant>
				<Constant> 'FAMILY': 0.3434174339351907</Constant>
				<Constant> 'FABRIC': 0.38442696918911951</Constant>
				<Constant> 'COSMETICS': 0.44436519258202573</Constant>
				<Constant> 'BEAUTY': 0.19031692944736425</Constant>
				<Constant> 'BATTERIES': 0.13894324853228962</Constant>
				<Constant> 'BABY': 0.1755127602943479</Constant>
				<Constant> 'APPLIANCE': 0.0027301733495608696</Constant>
			</Apply>
		</DerivedField>
		<DerivedField name="float(com.highradius.ai.jpmml.functions.HistoryXref(product_category))" optype="continuous" dataType="float">
			<FieldRef field="com.highradius.ai.jpmml.functions.HistoryXref(product_category)"/>
		</DerivedField>
		<DerivedField name="double(float(com.highradius.ai.jpmml.functions.HistoryXref(product_category)))" optype="continuous" dataType="double">
			<FieldRef field="float(com.highradius.ai.jpmml.functions.HistoryXref(product_category))"/>
		</DerivedField>
	</TransformationDictionary>
	<MiningModel functionName="classification">
		<MiningSchema>
			<MiningField name="labels" usageType="target"/>
			<MiningField name="product_category" missingValueReplacement="others" missingValueTreatment="asIs" invalidValueTreatment="asIs"/>
		</MiningSchema>
		<Output>
			<OutputField name="probability(-1)" optype="continuous" dataType="double" feature="probability" value="-1"/>
			<OutputField name="probability(1)" optype="continuous" dataType="double" feature="probability" value="1"/>
		</Output>
		<ModelStats>
			<UnivariateStats field="product_category">
				<Counts totalFreq="127928.0" missingFreq="0.0" invalidFreq="0.0"/>
				<DiscrStats>
					<Array type="string">APPLIANCE BABY BATTERIES BEAUTY CHEMICAL COSMETICS FABRIC FAMILY "FEM CARE" GROOMING HAIR "MULTI GROC" "MULTI GROH" "MULTI HABA" "MULTI PAPE" PGP PHC "PROF SALON" UNIDENTIFI</Array>
					<Array type="int">22897 4545 1 4096 11 733 22955 5786 2117 2179 2090 7330 25601 5878 408 811 13611 1 6878</Array>
				</DiscrStats>
			</UnivariateStats>
		</ModelStats>
		<Segmentation multipleModelMethod="average">
			<Segment id="1">
				<True/>
				<TreeModel functionName="classification" splitCharacteristic="binarySplit">
					<MiningSchema>
						<MiningField name="product_category"/>
					</MiningSchema>
					<Node id="1">
						<True/>
						<Node id="2">
							<SimplePredicate field="double(float(com.highradius.ai.jpmml.functions.HistoryXref(product_category)))" operator="lessOrEqual" value="0.27535000443458557"/>
							<Node id="3">
								<SimplePredicate field="double(float(com.highradius.ai.jpmml.functions.HistoryXref(product_category)))" operator="lessOrEqual" value="0.08285000175237656"/>
								<Node id="4" score="1" recordCount="22739.0">
									<SimplePredicate field="double(float(com.highradius.ai.jpmml.functions.HistoryXref(product_category)))" operator="lessOrEqual" value="0.025150001049041748"/>
									<ScoreDistribution value="-1" recordCount="60.0"/>
									<ScoreDistribution value="1" recordCount="22679.0"/>
								</Node>
								<Node id="5" score="1" recordCount="5730.0">
									<SimplePredicate field="double(float(com.highradius.ai.jpmml.functions.HistoryXref(product_category)))" operator="greaterThan" value="0.025150001049041748"/>
									<ScoreDistribution value="-1" recordCount="325.0"/>
									<ScoreDistribution value="1" recordCount="5405.0"/>
								</Node>
							</Node>
							<Node id="6">
								<SimplePredicate field="double(float(com.highradius.ai.jpmml.functions.HistoryXref(product_category)))" operator="greaterThan" value="0.08285000175237656"/>
								<Node id="7" score="1" recordCount="13713.0">
									<SimplePredicate field="double(float(com.highradius.ai.jpmml.functions.HistoryXref(product_category)))" operator="lessOrEqual" value="0.12849999964237213"/>
									<ScoreDistribution value="-1" recordCount="1829.0"/>
									<ScoreDistribution value="1" recordCount="11884.0"/>
								</Node>
								<Node id="8">
									<SimplePredicate field="double(float(com.highradius.ai.jpmml.functions.HistoryXref(product_category)))" operator="greaterThan" value="0.12849999964237213"/>
									<Node id="9">
										<SimplePredicate field="double(float(com.highradius.ai.jpmml.functions.HistoryXref(product_category)))" operator="lessOrEqual" value="0.18290001153945923"/>
										<Node id="10">
											<SimplePredicate field="double(float(com.highradius.ai.jpmml.functions.HistoryXref(product_category)))" operator="lessOrEqual" value="0.16940000653266907"/>
											<Node id="11" score="-1" recordCount="2.0">
												<SimplePredicate field="double(float(com.highradius.ai.jpmml.functions.HistoryXref(product_category)))" operator="lessOrEqual" value="0.15109999477863312"/>
												<ScoreDistribution value="-1" recordCount="2.0"/>
												<ScoreDistribution value="1" recordCount="0.0"/>
											</Node>
											<Node id="12" score="1" recordCount="25771.0">
												<SimplePredicate field="double(float(com.highradius.ai.jpmml.functions.HistoryXref(product_category)))" operator="greaterThan" value="0.15109999477863312"/>
												<ScoreDistribution value="-1" recordCount="4896.0"/>
												<ScoreDistribution value="1" recordCount="20875.0"/>
											</Node>
										</Node>
										<Node id="13" score="1" recordCount="4530.0">
											<SimplePredicate field="double(float(com.highradius.ai.jpmml.functions.HistoryXref(product_category)))" operator="greaterThan" value="0.16940000653266907"/>
											<ScoreDistribution value="-1" recordCount="696.0"/>
											<ScoreDistribution value="1" recordCount="3834.0"/>
										</Node>
									</Node>
									<Node id="14">
										<SimplePredicate field="double(float(com.highradius.ai.jpmml.functions.HistoryXref(product_category)))" operator="greaterThan" value="0.18290001153945923"/>
										<Node id="15">
											<SimplePredicate field="double(float(com.highradius.ai.jpmml.functions.HistoryXref(product_category)))" operator="lessOrEqual" value="0.22830000519752502"/>
											<Node id="16">
												<SimplePredicate field="double(float(com.highradius.ai.jpmml.functions.HistoryXref(product_category)))" operator="lessOrEqual" value="0.21594999730587006"/>
												<Node id="17" score="1" recordCount="4076.0">
													<SimplePredicate field="double(float(com.highradius.ai.jpmml.functions.HistoryXref(product_category)))" operator="lessOrEqual" value="0.19769999384880066"/>
													<ScoreDistribution value="-1" recordCount="910.0"/>
													<ScoreDistribution value="1" recordCount="3166.0"/>
												</Node>
												<Node id="18" score="1" recordCount="2127.0">
													<SimplePredicate field="double(float(com.highradius.ai.jpmml.functions.HistoryXref(product_category)))" operator="greaterThan" value="0.19769999384880066"/>
													<ScoreDistribution value="-1" recordCount="372.0"/>
													<ScoreDistribution value="1" recordCount="1755.0"/>
												</Node>
											</Node>
											<Node id="19">
												<SimplePredicate field="double(float(com.highradius.ai.jpmml.functions.HistoryXref(product_category)))" operator="greaterThan" value="0.21594999730587006"/>
												<Node id="20" score="1" recordCount="7383.0">
													<SimplePredicate field="double(float(com.highradius.ai.jpmml.functions.HistoryXref(product_category)))" operator="lessOrEqual" value="0.22689999639987946"/>
													<ScoreDistribution value="-1" recordCount="1811.0"/>
													<ScoreDistribution value="1" recordCount="5572.0"/>
												</Node>
												<Node id="21" score="1" recordCount="2090.0">
													<SimplePredicate field="double(float(com.highradius.ai.jpmml.functions.HistoryXref(product_category)))" operator="greaterThan" value="0.22689999639987946"/>
													<ScoreDistribution value="-1" recordCount="574.0"/>
													<ScoreDistribution value="1" recordCount="1516.0"/>
												</Node>
											</Node>
										</Node>
										<Node id="22">
											<SimplePredicate field="double(float(com.highradius.ai.jpmml.functions.HistoryXref(product_category)))" operator="greaterThan" value="0.22830000519752502"/>
											<Node id="23" score="1" recordCount="2082.0">
												<SimplePredicate field="double(float(com.highradius.ai.jpmml.functions.HistoryXref(product_category)))" operator="lessOrEqual" value="0.24869999289512634"/>
												<ScoreDistribution value="-1" recordCount="362.0"/>
												<ScoreDistribution value="1" recordCount="1720.0"/>
											</Node>
											<Node id="24" score="1" recordCount="7067.0">
												<SimplePredicate field="double(float(com.highradius.ai.jpmml.functions.HistoryXref(product_category)))" operator="greaterThan" value="0.24869999289512634"/>
												<ScoreDistribution value="-1" recordCount="1237.0"/>
												<ScoreDistribution value="1" recordCount="5830.0"/>
											</Node>
										</Node>
									</Node>
								</Node>
							</Node>
						</Node>
						<Node id="25">
							<SimplePredicate field="double(float(com.highradius.ai.jpmml.functions.HistoryXref(product_category)))" operator="greaterThan" value="0.27535000443458557"/>
							<Node id="26">
								<SimplePredicate field="double(float(com.highradius.ai.jpmml.functions.HistoryXref(product_category)))" operator="lessOrEqual" value="0.36390000581741333"/>
								<Node id="27" score="1" recordCount="750.0">
									<SimplePredicate field="double(float(com.highradius.ai.jpmml.functions.HistoryXref(product_category)))" operator="lessOrEqual" value="0.31314998865127563"/>
									<ScoreDistribution value="-1" recordCount="236.0"/>
									<ScoreDistribution value="1" recordCount="514.0"/>
								</Node>
								<Node id="28" score="1" recordCount="5647.0">
									<SimplePredicate field="double(float(com.highradius.ai.jpmml.functions.HistoryXref(product_category)))" operator="greaterThan" value="0.31314998865127563"/>
									<ScoreDistribution value="-1" recordCount="1682.0"/>
									<ScoreDistribution value="1" recordCount="3965.0"/>
								</Node>
							</Node>
							<Node id="29">
								<SimplePredicate field="double(float(com.highradius.ai.jpmml.functions.HistoryXref(product_category)))" operator="greaterThan" value="0.36390000581741333"/>
								<Node id="30">
									<SimplePredicate field="double(float(com.highradius.ai.jpmml.functions.HistoryXref(product_category)))" operator="lessOrEqual" value="0.4352499842643738"/>
									<Node id="31" score="1" recordCount="23102.0">
										<SimplePredicate field="double(float(com.highradius.ai.jpmml.functions.HistoryXref(product_category)))" operator="lessOrEqual" value="0.40525001287460327"/>
										<ScoreDistribution value="-1" recordCount="9989.0"/>
										<ScoreDistribution value="1" recordCount="13113.0"/>
									</Node>
									<Node id="32" score="1" recordCount="392.0">
										<SimplePredicate field="double(float(com.highradius.ai.jpmml.functions.HistoryXref(product_category)))" operator="greaterThan" value="0.40525001287460327"/>
										<ScoreDistribution value="-1" recordCount="162.0"/>
										<ScoreDistribution value="1" recordCount="230.0"/>
									</Node>
								</Node>
								<Node id="33" score="-1" recordCount="727.0">
									<SimplePredicate field="double(float(com.highradius.ai.jpmml.functions.HistoryXref(product_category)))" operator="greaterThan" value="0.4352499842643738"/>
									<ScoreDistribution value="-1" recordCount="383.0"/>
									<ScoreDistribution value="1" recordCount="344.0"/>
								</Node>
							</Node>
						</Node>
					</Node>
				</TreeModel>
			</Segment>
			<Segment id="2">
				<True/>
				<TreeModel functionName="classification" splitCharacteristic="binarySplit">
					<MiningSchema>
						<MiningField name="product_category"/>
					</MiningSchema>
					<Node id="1">
						<True/>
						<Node id="2">
							<SimplePredicate field="double(float(com.highradius.ai.jpmml.functions.HistoryXref(product_category)))" operator="lessOrEqual" value="0.31314998865127563"/>
							<Node id="3">
								<SimplePredicate field="double(float(com.highradius.ai.jpmml.functions.HistoryXref(product_category)))" operator="lessOrEqual" value="0.08285000175237656"/>
								<Node id="4" score="1" recordCount="22990.0">
									<SimplePredicate field="double(float(com.highradius.ai.jpmml.functions.HistoryXref(product_category)))" operator="lessOrEqual" value="0.025150001049041748"/>
									<ScoreDistribution value="-1" recordCount="70.0"/>
									<ScoreDistribution value="1" recordCount="22920.0"/>
								</Node>
								<Node id="5" score="1" recordCount="5884.0">
									<SimplePredicate field="double(float(com.highradius.ai.jpmml.functions.HistoryXref(product_category)))" operator="greaterThan" value="0.025150001049041748"/>
									<ScoreDistribution value="-1" recordCount="305.0"/>
									<ScoreDistribution value="1" recordCount="5579.0"/>
								</Node>
							</Node>
							<Node id="6">
								<SimplePredicate field="double(float(com.highradius.ai.jpmml.functions.HistoryXref(product_category)))" operator="greaterThan" value="0.08285000175237656"/>
								<Node id="7" score="1" recordCount="13667.0">
									<SimplePredicate field="double(float(com.highradius.ai.jpmml.functions.HistoryXref(product_category)))" operator="lessOrEqual" value="0.12849999964237213"/>
									<ScoreDistribution value="-1" recordCount="1759.0"/>
									<ScoreDistribution value="1" recordCount="11908.0"/>
								</Node>
								<Node id="8">
									<SimplePredicate field="double(float(com.highradius.ai.jpmml.functions.HistoryXref(product_category)))" operator="greaterThan" value="0.12849999964237213"/>
									<Node id="9">
										<SimplePredicate field="double(float(com.highradius.ai.jpmml.functions.HistoryXref(product_category)))" operator="lessOrEqual" value="0.18290001153945923"/>
										<Node id="10">
											<SimplePredicate field="double(float(com.highradius.ai.jpmml.functions.HistoryXref(product_category)))" operator="lessOrEqual" value="0.16940000653266907"/>
											<Node id="11" score="-1" recordCount="1.0">
												<SimplePredicate field="double(float(com.highradius.ai.jpmml.functions.HistoryXref(product_category)))" operator="lessOrEqual" value="0.15109999477863312"/>
												<ScoreDistribution value="-1" recordCount="1.0"/>
												<ScoreDistribution value="1" recordCount="0.0"/>
											</Node>
											<Node id="12" score="1" recordCount="25655.0">
												<SimplePredicate field="double(float(com.highradius.ai.jpmml.functions.HistoryXref(product_category)))" operator="greaterThan" value="0.15109999477863312"/>
												<ScoreDistribution value="-1" recordCount="5026.0"/>
												<ScoreDistribution value="1" recordCount="20629.0"/>
											</Node>
										</Node>
										<Node id="13" score="1" recordCount="4552.0">
											<SimplePredicate field="double(float(com.highradius.ai.jpmml.functions.HistoryXref(product_category)))" operator="greaterThan" value="0.16940000653266907"/>
											<ScoreDistribution value="-1" recordCount="670.0"/>
											<ScoreDistribution value="1" recordCount="3882.0"/>
										</Node>
									</Node>
									<Node id="14">
										<SimplePredicate field="double(float(com.highradius.ai.jpmml.functions.HistoryXref(product_category)))" operator="greaterThan" value="0.18290001153945923"/>
										<Node id="15">
											<SimplePredicate field="double(float(com.highradius.ai.jpmml.functions.HistoryXref(product_category)))" operator="lessOrEqual" value="0.22830000519752502"/>
											<Node id="16">
												<SimplePredicate field="double(float(com.highradius.ai.jpmml.functions.HistoryXref(product_category)))" operator="lessOrEqual" value="0.21594999730587006"/>
												<Node id="17" score="1" recordCount="4064.0">
													<SimplePredicate field="double(float(com.highradius.ai.jpmml.functions.HistoryXref(product_category)))" operator="lessOrEqual" value="0.19769999384880066"/>
													<ScoreDistribution value="-1" recordCount="878.0"/>
													<ScoreDistribution value="1" recordCount="3186.0"/>
												</Node>
												<Node id="18" score="1" recordCount="2138.0">
													<SimplePredicate field="double(float(com.highradius.ai.jpmml.functions.HistoryXref(product_category)))" operator="greaterThan" value="0.19769999384880066"/>
													<ScoreDistribution value="-1" recordCount="374.0"/>
													<ScoreDistribution value="1" recordCount="1764.0"/>
												</Node>
											</Node>
											<Node id="19">
												<SimplePredicate field="double(float(com.highradius.ai.jpmml.functions.HistoryXref(product_category)))" operator="greaterThan" value="0.21594999730587006"/>
												<Node id="20" score="1" recordCount="7213.0">
													<SimplePredicate field="double(float(com.highradius.ai.jpmml.functions.HistoryXref(product_category)))" operator="lessOrEqual" value="0.22689999639987946"/>
													<ScoreDistribution value="-1" recordCount="1710.0"/>
													<ScoreDistribution value="1" recordCount="5503.0"/>
												</Node>
												<Node id="21" score="1" recordCount="2092.0">
													<SimplePredicate field="double(float(com.highradius.ai.jpmml.functions.HistoryXref(product_category)))" operator="greaterThan" value="0.22689999639987946"/>
													<ScoreDistribution value="-1" recordCount="563.0"/>
													<ScoreDistribution value="1" recordCount="1529.0"/>
												</Node>
											</Node>
										</Node>
										<Node id="22">
											<SimplePredicate field="double(float(com.highradius.ai.jpmml.functions.HistoryXref(product_category)))" operator="greaterThan" value="0.22830000519752502"/>
											<Node id="23">
												<SimplePredicate field="double(float(com.highradius.ai.jpmml.functions.HistoryXref(product_category)))" operator="lessOrEqual" value="0.27535000443458557"/>
												<Node id="24" score="1" recordCount="2083.0">
													<SimplePredicate field="double(float(com.highradius.ai.jpmml.functions.HistoryXref(product_category)))" operator="lessOrEqual" value="0.24869999289512634"/>
													<ScoreDistribution value="-1" recordCount="394.0"/>
													<ScoreDistribution value="1" recordCount="1689.0"/>
												</Node>
												<Node id="25" score="1" recordCount="6870.0">
													<SimplePredicate field="double(float(com.highradius.ai.jpmml.functions.HistoryXref(product_category)))" operator="greaterThan" value="0.24869999289512634"/>
													<ScoreDistribution value="-1" recordCount="1205.0"/>
													<ScoreDistribution value="1" recordCount="5665.0"/>
												</Node>
											</Node>
											<Node id="26" score="1" recordCount="823.0">
												<SimplePredicate field="double(float(com.highradius.ai.jpmml.functions.HistoryXref(product_category)))" operator="greaterThan" value="0.27535000443458557"/>
												<ScoreDistribution value="-1" recordCount="215.0"/>
												<ScoreDistribution value="1" recordCount="608.0"/>
											</Node>
										</Node>
									</Node>
								</Node>
							</Node>
						</Node>
						<Node id="27">
							<SimplePredicate field="double(float(com.highradius.ai.jpmml.functions.HistoryXref(product_category)))" operator="greaterThan" value="0.31314998865127563"/>
							<Node id="28" score="1" recordCount="5825.0">
								<SimplePredicate field="double(float(com.highradius.ai.jpmml.functions.HistoryXref(product_category)))" operator="lessOrEqual" value="0.36390000581741333"/>
								<ScoreDistribution value="-1" recordCount="1753.0"/>
								<ScoreDistribution value="1" recordCount="4072.0"/>
							</Node>
							<Node id="29">
								<SimplePredicate field="double(float(com.highradius.ai.jpmml.functions.HistoryXref(product_category)))" operator="greaterThan" value="0.36390000581741333"/>
								<Node id="30">
									<SimplePredicate field="double(float(com.highradius.ai.jpmml.functions.HistoryXref(product_category)))" operator="lessOrEqual" value="0.4352499842643738"/>
									<Node id="31" score="1" recordCount="22895.0">
										<SimplePredicate field="double(float(com.highradius.ai.jpmml.functions.HistoryXref(product_category)))" operator="lessOrEqual" value="0.40525001287460327"/>
										<ScoreDistribution value="-1" recordCount="9906.0"/>
										<ScoreDistribution value="1" recordCount="12989.0"/>
									</Node>
									<Node id="32" score="1" recordCount="418.0">
										<SimplePredicate field="double(float(com.highradius.ai.jpmml.functions.HistoryXref(product_category)))" operator="greaterThan" value="0.40525001287460327"/>
										<ScoreDistribution value="-1" recordCount="159.0"/>
										<ScoreDistribution value="1" recordCount="259.0"/>
									</Node>
								</Node>
								<Node id="33" score="-1" recordCount="758.0">
									<SimplePredicate field="double(float(com.highradius.ai.jpmml.functions.HistoryXref(product_category)))" operator="greaterThan" value="0.4352499842643738"/>
									<ScoreDistribution value="-1" recordCount="389.0"/>
									<ScoreDistribution value="1" recordCount="369.0"/>
								</Node>
							</Node>
						</Node>
					</Node>
				</TreeModel>
			</Segment>
			<Segment id="3">
				<True/>
				<TreeModel functionName="classification" splitCharacteristic="binarySplit">
					<MiningSchema>
						<MiningField name="product_category"/>
					</MiningSchema>
					<Node id="1">
						<True/>
						<Node id="2">
							<SimplePredicate field="double(float(com.highradius.ai.jpmml.functions.HistoryXref(product_category)))" operator="lessOrEqual" value="0.31314998865127563"/>
							<Node id="3">
								<SimplePredicate field="double(float(com.highradius.ai.jpmml.functions.HistoryXref(product_category)))" operator="lessOrEqual" value="0.08285000175237656"/>
								<Node id="4" score="1" recordCount="22801.0">
									<SimplePredicate field="double(float(com.highradius.ai.jpmml.functions.HistoryXref(product_category)))" operator="lessOrEqual" value="0.025150001049041748"/>
									<ScoreDistribution value="-1" recordCount="64.0"/>
									<ScoreDistribution value="1" recordCount="22737.0"/>
								</Node>
								<Node id="5" score="1" recordCount="5777.0">
									<SimplePredicate field="double(float(com.highradius.ai.jpmml.functions.HistoryXref(product_category)))" operator="greaterThan" value="0.025150001049041748"/>
									<ScoreDistribution value="-1" recordCount="305.0"/>
									<ScoreDistribution value="1" recordCount="5472.0"/>
								</Node>
							</Node>
							<Node id="6">
								<SimplePredicate field="double(float(com.highradius.ai.jpmml.functions.HistoryXref(product_category)))" operator="greaterThan" value="0.08285000175237656"/>
								<Node id="7" score="1" recordCount="13671.0">
									<SimplePredicate field="double(float(com.highradius.ai.jpmml.functions.HistoryXref(product_category)))" operator="lessOrEqual" value="0.12849999964237213"/>
									<ScoreDistribution value="-1" recordCount="1767.0"/>
									<ScoreDistribution value="1" recordCount="11904.0"/>
								</Node>
								<Node id="8">
									<SimplePredicate field="double(float(com.highradius.ai.jpmml.functions.HistoryXref(product_category)))" operator="greaterThan" value="0.12849999964237213"/>
									<Node id="9">
										<SimplePredicate field="double(float(com.highradius.ai.jpmml.functions.HistoryXref(product_category)))" operator="lessOrEqual" value="0.18290001153945923"/>
										<Node id="10">
											<SimplePredicate field="double(float(com.highradius.ai.jpmml.functions.HistoryXref(product_category)))" operator="lessOrEqual" value="0.16940000653266907"/>
											<Node id="11" score="-1" recordCount="3.0">
												<SimplePredicate field="double(float(com.highradius.ai.jpmml.functions.HistoryXref(product_category)))" operator="lessOrEqual" value="0.15109999477863312"/>
												<ScoreDistribution value="-1" recordCount="3.0"/>
												<ScoreDistribution value="1" recordCount="0.0"/>
											</Node>
											<Node id="12" score="1" recordCount="25784.0">
												<SimplePredicate field="double(float(com.highradius.ai.jpmml.functions.HistoryXref(product_category)))" operator="greaterThan" value="0.15109999477863312"/>
												<ScoreDistribution value="-1" recordCount="5099.0"/>
												<ScoreDistribution value="1" recordCount="20685.0"/>
											</Node>
										</Node>
										<Node id="13" score="1" recordCount="4624.0">
											<SimplePredicate field="double(float(com.highradius.ai.jpmml.functions.HistoryXref(product_category)))" operator="greaterThan" value="0.16940000653266907"/>
											<ScoreDistribution value="-1" recordCount="705.0"/>
											<ScoreDistribution value="1" recordCount="3919.0"/>
										</Node>
									</Node>
									<Node id="14">
										<SimplePredicate field="double(float(com.highradius.ai.jpmml.functions.HistoryXref(product_category)))" operator="greaterThan" value="0.18290001153945923"/>
										<Node id="15">
											<SimplePredicate field="double(float(com.highradius.ai.jpmml.functions.HistoryXref(product_category)))" operator="lessOrEqual" value="0.22830000519752502"/>
											<Node id="16">
												<SimplePredicate field="double(float(com.highradius.ai.jpmml.functions.HistoryXref(product_category)))" operator="lessOrEqual" value="0.22689999639987946"/>
												<Node id="17">
													<SimplePredicate field="double(float(com.highradius.ai.jpmml.functions.HistoryXref(product_category)))" operator="lessOrEqual" value="0.21594999730587006"/>
													<Node id="18" score="1" recordCount="4095.0">
														<SimplePredicate field="double(float(com.highradius.ai.jpmml.functions.HistoryXref(product_category)))" operator="lessOrEqual" value="0.19769999384880066"/>
														<ScoreDistribution value="-1" recordCount="965.0"/>
														<ScoreDistribution value="1" recordCount="3130.0"/>
													</Node>
													<Node id="19" score="1" recordCount="2159.0">
														<SimplePredicate field="double(float(com.highradius.ai.jpmml.functions.HistoryXref(product_category)))" operator="greaterThan" value="0.19769999384880066"/>
														<ScoreDistribution value="-1" recordCount="386.0"/>
														<ScoreDistribution value="1" recordCount="1773.0"/>
													</Node>
												</Node>
												<Node id="20" score="1" recordCount="7191.0">
													<SimplePredicate field="double(float(com.highradius.ai.jpmml.functions.HistoryXref(product_category)))" operator="greaterThan" value="0.21594999730587006"/>
													<ScoreDistribution value="-1" recordCount="1672.0"/>
													<ScoreDistribution value="1" recordCount="5519.0"/>
												</Node>
											</Node>
											<Node id="21" score="1" recordCount="2086.0">
												<SimplePredicate field="double(float(com.highradius.ai.jpmml.functions.HistoryXref(product_category)))" operator="greaterThan" value="0.22689999639987946"/>
												<ScoreDistribution value="-1" recordCount="548.0"/>
												<ScoreDistribution value="1" recordCount="1538.0"/>
											</Node>
										</Node>
										<Node id="22">
											<SimplePredicate field="double(float(com.highradius.ai.jpmml.functions.HistoryXref(product_category)))" operator="greaterThan" value="0.22830000519752502"/>
											<Node id="23">
												<SimplePredicate field="double(float(com.highradius.ai.jpmml.functions.HistoryXref(product_category)))" operator="lessOrEqual" value="0.27535000443458557"/>
												<Node id="24" score="1" recordCount="2118.0">
													<SimplePredicate field="double(float(com.highradius.ai.jpmml.functions.HistoryXref(product_category)))" operator="lessOrEqual" value="0.24869999289512634"/>
													<ScoreDistribution value="-1" recordCount="427.0"/>
													<ScoreDistribution value="1" recordCount="1691.0"/>
												</Node>
												<Node id="25" score="1" recordCount="6758.0">
													<SimplePredicate field="double(float(com.highradius.ai.jpmml.functions.HistoryXref(product_category)))" operator="greaterThan" value="0.24869999289512634"/>
													<ScoreDistribution value="-1" recordCount="1170.0"/>
													<ScoreDistribution value="1" recordCount="5588.0"/>
												</Node>
											</Node>
											<Node id="26" score="1" recordCount="847.0">
												<SimplePredicate field="double(float(com.highradius.ai.jpmml.functions.HistoryXref(product_category)))" operator="greaterThan" value="0.27535000443458557"/>
												<ScoreDistribution value="-1" recordCount="221.0"/>
												<ScoreDistribution value="1" recordCount="626.0"/>
											</Node>
										</Node>
									</Node>
								</Node>
							</Node>
						</Node>
						<Node id="27">
							<SimplePredicate field="double(float(com.highradius.ai.jpmml.functions.HistoryXref(product_category)))" operator="greaterThan" value="0.31314998865127563"/>
							<Node id="28" score="1" recordCount="5788.0">
								<SimplePredicate field="double(float(com.highradius.ai.jpmml.functions.HistoryXref(product_category)))" operator="lessOrEqual" value="0.36390000581741333"/>
								<ScoreDistribution value="-1" recordCount="1723.0"/>
								<ScoreDistribution value="1" recordCount="4065.0"/>
							</Node>
							<Node id="29">
								<SimplePredicate field="double(float(com.highradius.ai.jpmml.functions.HistoryXref(product_category)))" operator="greaterThan" value="0.36390000581741333"/>
								<Node id="30">
									<SimplePredicate field="double(float(com.highradius.ai.jpmml.functions.HistoryXref(product_category)))" operator="lessOrEqual" value="0.4352499842643738"/>
									<Node id="31" score="1" recordCount="23039.0">
										<SimplePredicate field="double(float(com.highradius.ai.jpmml.functions.HistoryXref(product_category)))" operator="lessOrEqual" value="0.40525001287460327"/>
										<ScoreDistribution value="-1" recordCount="10059.0"/>
										<ScoreDistribution value="1" recordCount="12980.0"/>
									</Node>
									<Node id="32" score="1" recordCount="423.0">
										<SimplePredicate field="double(float(com.highradius.ai.jpmml.functions.HistoryXref(product_category)))" operator="greaterThan" value="0.40525001287460327"/>
										<ScoreDistribution value="-1" recordCount="164.0"/>
										<ScoreDistribution value="1" recordCount="259.0"/>
									</Node>
								</Node>
								<Node id="33" score="-1" recordCount="764.0">
									<SimplePredicate field="double(float(com.highradius.ai.jpmml.functions.HistoryXref(product_category)))" operator="greaterThan" value="0.4352499842643738"/>
									<ScoreDistribution value="-1" recordCount="410.0"/>
									<ScoreDistribution value="1" recordCount="354.0"/>
								</Node>
							</Node>
						</Node>
					</Node>
				</TreeModel>
			</Segment>
			<Segment id="4">
				<True/>
				<TreeModel functionName="classification" splitCharacteristic="binarySplit">
					<MiningSchema>
						<MiningField name="product_category"/>
					</MiningSchema>
					<Node id="1">
						<True/>
						<Node id="2">
							<SimplePredicate field="double(float(com.highradius.ai.jpmml.functions.HistoryXref(product_category)))" operator="lessOrEqual" value="0.27535000443458557"/>
							<Node id="3">
								<SimplePredicate field="double(float(com.highradius.ai.jpmml.functions.HistoryXref(product_category)))" operator="lessOrEqual" value="0.08285000175237656"/>
								<Node id="4" score="1" recordCount="22965.0">
									<SimplePredicate field="double(float(com.highradius.ai.jpmml.functions.HistoryXref(product_category)))" operator="lessOrEqual" value="0.025150001049041748"/>
									<ScoreDistribution value="-1" recordCount="62.0"/>
									<ScoreDistribution value="1" recordCount="22903.0"/>
								</Node>
								<Node id="5" score="1" recordCount="5850.0">
									<SimplePredicate field="double(float(com.highradius.ai.jpmml.functions.HistoryXref(product_category)))" operator="greaterThan" value="0.025150001049041748"/>
									<ScoreDistribution value="-1" recordCount="271.0"/>
									<ScoreDistribution value="1" recordCount="5579.0"/>
								</Node>
							</Node>
							<Node id="6">
								<SimplePredicate field="double(float(com.highradius.ai.jpmml.functions.HistoryXref(product_category)))" operator="greaterThan" value="0.08285000175237656"/>
								<Node id="7" score="1" recordCount="13598.0">
									<SimplePredicate field="double(float(com.highradius.ai.jpmml.functions.HistoryXref(product_category)))" operator="lessOrEqual" value="0.12849999964237213"/>
									<ScoreDistribution value="-1" recordCount="1717.0"/>
									<ScoreDistribution value="1" recordCount="11881.0"/>
								</Node>
								<Node id="8">
									<SimplePredicate field="double(float(com.highradius.ai.jpmml.functions.HistoryXref(product_category)))" operator="greaterThan" value="0.12849999964237213"/>
									<Node id="9">
										<SimplePredicate field="double(float(com.highradius.ai.jpmml.functions.HistoryXref(product_category)))" operator="lessOrEqual" value="0.22830000519752502"/>
										<Node id="10">
											<SimplePredicate field="double(float(com.highradius.ai.jpmml.functions.HistoryXref(product_category)))" operator="lessOrEqual" value="0.21594999730587006"/>
											<Node id="11">
												<SimplePredicate field="double(float(com.highradius.ai.jpmml.functions.HistoryXref(product_category)))" operator="lessOrEqual" value="0.16940000653266907"/>
												<Node id="12" score="-1" recordCount="2.0">
													<SimplePredicate field="double(float(com.highradius.ai.jpmml.functions.HistoryXref(product_category)))" operator="lessOrEqual" value="0.15109999477863312"/>
													<ScoreDistribution value="-1" recordCount="2.0"/>
													<ScoreDistribution value="1" recordCount="0.0"/>
												</Node>
												<Node id="13" score="1" recordCount="25550.0">
													<SimplePredicate field="double(float(com.highradius.ai.jpmml.functions.HistoryXref(product_category)))" operator="greaterThan" value="0.15109999477863312"/>
													<ScoreDistribution value="-1" recordCount="5070.0"/>
													<ScoreDistribution value="1" recordCount="20480.0"/>
												</Node>
											</Node>
											<Node id="14">
												<SimplePredicate field="double(float(com.highradius.ai.jpmml.functions.HistoryXref(product_category)))" operator="greaterThan" value="0.16940000653266907"/>
												<Node id="15" score="1" recordCount="4536.0">
													<SimplePredicate field="double(float(com.highradius.ai.jpmml.functions.HistoryXref(product_category)))" operator="lessOrEqual" value="0.18290001153945923"/>
													<ScoreDistribution value="-1" recordCount="707.0"/>
													<ScoreDistribution value="1" recordCount="3829.0"/>
												</Node>
												<Node id="16">
													<SimplePredicate field="double(float(com.highradius.ai.jpmml.functions.HistoryXref(product_category)))" operator="greaterThan" value="0.18290001153945923"/>
													<Node id="17" score="1" recordCount="4151.0">
														<SimplePredicate field="double(float(com.highradius.ai.jpmml.functions.HistoryXref(product_category)))" operator="lessOrEqual" value="0.19769999384880066"/>
														<ScoreDistribution value="-1" recordCount="915.0"/>
														<ScoreDistribution value="1" recordCount="3236.0"/>
													</Node>
													<Node id="18" score="1" recordCount="2205.0">
														<SimplePredicate field="double(float(com.highradius.ai.jpmml.functions.HistoryXref(product_category)))" operator="greaterThan" value="0.19769999384880066"/>
														<ScoreDistribution value="-1" recordCount="392.0"/>
														<ScoreDistribution value="1" recordCount="1813.0"/>
													</Node>
												</Node>
											</Node>
										</Node>
										<Node id="19">
											<SimplePredicate field="double(float(com.highradius.ai.jpmml.functions.HistoryXref(product_category)))" operator="greaterThan" value="0.21594999730587006"/>
											<Node id="20" score="1" recordCount="7444.0">
												<SimplePredicate field="double(float(com.highradius.ai.jpmml.functions.HistoryXref(product_category)))" operator="lessOrEqual" value="0.22689999639987946"/>
												<ScoreDistribution value="-1" recordCount="1776.0"/>
												<ScoreDistribution value="1" recordCount="5668.0"/>
											</Node>
											<Node id="21" score="1" recordCount="2059.0">
												<SimplePredicate field="double(float(com.highradius.ai.jpmml.functions.HistoryXref(product_category)))" operator="greaterThan" value="0.22689999639987946"/>
												<ScoreDistribution value="-1" recordCount="528.0"/>
												<ScoreDistribution value="1" recordCount="1531.0"/>
											</Node>
										</Node>
									</Node>
									<Node id="22">
										<SimplePredicate field="double(float(com.highradius.ai.jpmml.functions.HistoryXref(product_category)))" operator="greaterThan" value="0.22830000519752502"/>
										<Node id="23" score="1" recordCount="2182.0">
											<SimplePredicate field="double(float(com.highradius.ai.jpmml.functions.HistoryXref(product_category)))" operator="lessOrEqual" value="0.24869999289512634"/>
											<ScoreDistribution value="-1" recordCount="411.0"/>
											<ScoreDistribution value="1" recordCount="1771.0"/>
										</Node>
										<Node id="24" score="1" recordCount="6899.0">
											<SimplePredicate field="double(float(com.highradius.ai.jpmml.functions.HistoryXref(product_category)))" operator="greaterThan" value="0.24869999289512634"/>
											<ScoreDistribution value="-1" recordCount="1187.0"/>
											<ScoreDistribution value="1" recordCount="5712.0"/>
										</Node>
									</Node>
								</Node>
							</Node>
						</Node>
						<Node id="25">
							<SimplePredicate field="double(float(com.highradius.ai.jpmml.functions.HistoryXref(product_category)))" operator="greaterThan" value="0.27535000443458557"/>
							<Node id="26">
								<SimplePredicate field="double(float(com.highradius.ai.jpmml.functions.HistoryXref(product_category)))" operator="lessOrEqual" value="0.36390000581741333"/>
								<Node id="27" score="1" recordCount="772.0">
									<SimplePredicate field="double(float(com.highradius.ai.jpmml.functions.HistoryXref(product_category)))" operator="lessOrEqual" value="0.31314998865127563"/>
									<ScoreDistribution value="-1" recordCount="232.0"/>
									<ScoreDistribution value="1" recordCount="540.0"/>
								</Node>
								<Node id="28" score="1" recordCount="5872.0">
									<SimplePredicate field="double(float(com.highradius.ai.jpmml.functions.HistoryXref(product_category)))" operator="greaterThan" value="0.31314998865127563"/>
									<ScoreDistribution value="-1" recordCount="1763.0"/>
									<ScoreDistribution value="1" recordCount="4109.0"/>
								</Node>
							</Node>
							<Node id="29">
								<SimplePredicate field="double(float(com.highradius.ai.jpmml.functions.HistoryXref(product_category)))" operator="greaterThan" value="0.36390000581741333"/>
								<Node id="30">
									<SimplePredicate field="double(float(com.highradius.ai.jpmml.functions.HistoryXref(product_category)))" operator="lessOrEqual" value="0.4352499842643738"/>
									<Node id="31" score="1" recordCount="22711.0">
										<SimplePredicate field="double(float(com.highradius.ai.jpmml.functions.HistoryXref(product_category)))" operator="lessOrEqual" value="0.40525001287460327"/>
										<ScoreDistribution value="-1" recordCount="9875.0"/>
										<ScoreDistribution value="1" recordCount="12836.0"/>
									</Node>
									<Node id="32" score="1" recordCount="429.0">
										<SimplePredicate field="double(float(com.highradius.ai.jpmml.functions.HistoryXref(product_category)))" operator="greaterThan" value="0.40525001287460327"/>
										<ScoreDistribution value="-1" recordCount="158.0"/>
										<ScoreDistribution value="1" recordCount="271.0"/>
									</Node>
								</Node>
								<Node id="33" score="-1" recordCount="703.0">
									<SimplePredicate field="double(float(com.highradius.ai.jpmml.functions.HistoryXref(product_category)))" operator="greaterThan" value="0.4352499842643738"/>
									<ScoreDistribution value="-1" recordCount="387.0"/>
									<ScoreDistribution value="1" recordCount="316.0"/>
								</Node>
							</Node>
						</Node>
					</Node>
				</TreeModel>
			</Segment>
			<Segment id="5">
				<True/>
				<TreeModel functionName="classification" splitCharacteristic="binarySplit">
					<MiningSchema>
						<MiningField name="product_category"/>
					</MiningSchema>
					<Node id="1">
						<True/>
						<Node id="2">
							<SimplePredicate field="double(float(com.highradius.ai.jpmml.functions.HistoryXref(product_category)))" operator="lessOrEqual" value="0.31314998865127563"/>
							<Node id="3">
								<SimplePredicate field="double(float(com.highradius.ai.jpmml.functions.HistoryXref(product_category)))" operator="lessOrEqual" value="0.08285000175237656"/>
								<Node id="4" score="1" recordCount="23157.0">
									<SimplePredicate field="double(float(com.highradius.ai.jpmml.functions.HistoryXref(product_category)))" operator="lessOrEqual" value="0.025150001049041748"/>
									<ScoreDistribution value="-1" recordCount="81.0"/>
									<ScoreDistribution value="1" recordCount="23076.0"/>
								</Node>
								<Node id="5" score="1" recordCount="5845.0">
									<SimplePredicate field="double(float(com.highradius.ai.jpmml.functions.HistoryXref(product_category)))" operator="greaterThan" value="0.025150001049041748"/>
									<ScoreDistribution value="-1" recordCount="305.0"/>
									<ScoreDistribution value="1" recordCount="5540.0"/>
								</Node>
							</Node>
							<Node id="6">
								<SimplePredicate field="double(float(com.highradius.ai.jpmml.functions.HistoryXref(product_category)))" operator="greaterThan" value="0.08285000175237656"/>
								<Node id="7" score="1" recordCount="13547.0">
									<SimplePredicate field="double(float(com.highradius.ai.jpmml.functions.HistoryXref(product_category)))" operator="lessOrEqual" value="0.12849999964237213"/>
									<ScoreDistribution value="-1" recordCount="1698.0"/>
									<ScoreDistribution value="1" recordCount="11849.0"/>
								</Node>
								<Node id="8">
									<SimplePredicate field="double(float(com.highradius.ai.jpmml.functions.HistoryXref(product_category)))" operator="greaterThan" value="0.12849999964237213"/>
									<Node id="9">
										<SimplePredicate field="double(float(com.highradius.ai.jpmml.functions.HistoryXref(product_category)))" operator="lessOrEqual" value="0.18290001153945923"/>
										<Node id="10">
											<SimplePredicate field="double(float(com.highradius.ai.jpmml.functions.HistoryXref(product_category)))" operator="lessOrEqual" value="0.16940000653266907"/>
											<Node id="11" score="-1" recordCount="1.0">
												<SimplePredicate field="double(float(com.highradius.ai.jpmml.functions.HistoryXref(product_category)))" operator="lessOrEqual" value="0.15109999477863312"/>
												<ScoreDistribution value="-1" recordCount="1.0"/>
												<ScoreDistribution value="1" recordCount="0.0"/>
											</Node>
											<Node id="12" score="1" recordCount="25420.0">
												<SimplePredicate field="double(float(com.highradius.ai.jpmml.functions.HistoryXref(product_category)))" operator="greaterThan" value="0.15109999477863312"/>
												<ScoreDistribution value="-1" recordCount="4999.0"/>
												<ScoreDistribution value="1" recordCount="20421.0"/>
											</Node>
										</Node>
										<Node id="13" score="1" recordCount="4481.0">
											<SimplePredicate field="double(float(com.highradius.ai.jpmml.functions.HistoryXref(product_category)))" operator="greaterThan" value="0.16940000653266907"/>
											<ScoreDistribution value="-1" recordCount="661.0"/>
											<ScoreDistribution value="1" recordCount="3820.0"/>
										</Node>
									</Node>
									<Node id="14">
										<SimplePredicate field="double(float(com.highradius.ai.jpmml.functions.HistoryXref(product_category)))" operator="greaterThan" value="0.18290001153945923"/>
										<Node id="15">
											<SimplePredicate field="double(float(com.highradius.ai.jpmml.functions.HistoryXref(product_category)))" operator="lessOrEqual" value="0.22830000519752502"/>
											<Node id="16">
												<SimplePredicate field="double(float(com.highradius.ai.jpmml.functions.HistoryXref(product_category)))" operator="lessOrEqual" value="0.21594999730587006"/>
												<Node id="17" score="1" recordCount="4014.0">
													<SimplePredicate field="double(float(com.highradius.ai.jpmml.functions.HistoryXref(product_category)))" operator="lessOrEqual" value="0.19769999384880066"/>
													<ScoreDistribution value="-1" recordCount="921.0"/>
													<ScoreDistribution value="1" recordCount="3093.0"/>
												</Node>
												<Node id="18" score="1" recordCount="2201.0">
													<SimplePredicate field="double(float(com.highradius.ai.jpmml.functions.HistoryXref(product_category)))" operator="greaterThan" value="0.19769999384880066"/>
													<ScoreDistribution value="-1" recordCount="367.0"/>
													<ScoreDistribution value="1" recordCount="1834.0"/>
												</Node>
											</Node>
											<Node id="19">
												<SimplePredicate field="double(float(com.highradius.ai.jpmml.functions.HistoryXref(product_category)))" operator="greaterThan" value="0.21594999730587006"/>
												<Node id="20" score="1" recordCount="7522.0">
													<SimplePredicate field="double(float(com.highradius.ai.jpmml.functions.HistoryXref(product_category)))" operator="lessOrEqual" value="0.22689999639987946"/>
													<ScoreDistribution value="-1" recordCount="1809.0"/>
													<ScoreDistribution value="1" recordCount="5713.0"/>
												</Node>
												<Node id="21" score="1" recordCount="2020.0">
													<SimplePredicate field="double(float(com.highradius.ai.jpmml.functions.HistoryXref(product_category)))" operator="greaterThan" value="0.22689999639987946"/>
													<ScoreDistribution value="-1" recordCount="514.0"/>
													<ScoreDistribution value="1" recordCount="1506.0"/>
												</Node>
											</Node>
										</Node>
										<Node id="22">
											<SimplePredicate field="double(float(com.highradius.ai.jpmml.functions.HistoryXref(product_category)))" operator="greaterThan" value="0.22830000519752502"/>
											<Node id="23">
												<SimplePredicate field="double(float(com.highradius.ai.jpmml.functions.HistoryXref(product_category)))" operator="lessOrEqual" value="0.27535000443458557"/>
												<Node id="24" score="1" recordCount="2169.0">
													<SimplePredicate field="double(float(com.highradius.ai.jpmml.functions.HistoryXref(product_category)))" operator="lessOrEqual" value="0.24869999289512634"/>
													<ScoreDistribution value="-1" recordCount="378.0"/>
													<ScoreDistribution value="1" recordCount="1791.0"/>
												</Node>
												<Node id="25" score="1" recordCount="6943.0">
													<SimplePredicate field="double(float(com.highradius.ai.jpmml.functions.HistoryXref(product_category)))" operator="greaterThan" value="0.24869999289512634"/>
													<ScoreDistribution value="-1" recordCount="1272.0"/>
													<ScoreDistribution value="1" recordCount="5671.0"/>
												</Node>
											</Node>
											<Node id="26" score="1" recordCount="790.0">
												<SimplePredicate field="double(float(com.highradius.ai.jpmml.functions.HistoryXref(product_category)))" operator="greaterThan" value="0.27535000443458557"/>
												<ScoreDistribution value="-1" recordCount="206.0"/>
												<ScoreDistribution value="1" recordCount="584.0"/>
											</Node>
										</Node>
									</Node>
								</Node>
							</Node>
						</Node>
						<Node id="27">
							<SimplePredicate field="double(float(com.highradius.ai.jpmml.functions.HistoryXref(product_category)))" operator="greaterThan" value="0.31314998865127563"/>
							<Node id="28" score="1" recordCount="5825.0">
								<SimplePredicate field="double(float(com.highradius.ai.jpmml.functions.HistoryXref(product_category)))" operator="lessOrEqual" value="0.36390000581741333"/>
								<ScoreDistribution value="-1" recordCount="1733.0"/>
								<ScoreDistribution value="1" recordCount="4092.0"/>
							</Node>
							<Node id="29">
								<SimplePredicate field="double(float(com.highradius.ai.jpmml.functions.HistoryXref(product_category)))" operator="greaterThan" value="0.36390000581741333"/>
								<Node id="30">
									<SimplePredicate field="double(float(com.highradius.ai.jpmml.functions.HistoryXref(product_category)))" operator="lessOrEqual" value="0.4352499842643738"/>
									<Node id="31" score="1" recordCount="22881.0">
										<SimplePredicate field="double(float(com.highradius.ai.jpmml.functions.HistoryXref(product_category)))" operator="lessOrEqual" value="0.40525001287460327"/>
										<ScoreDistribution value="-1" recordCount="9904.0"/>
										<ScoreDistribution value="1" recordCount="12977.0"/>
									</Node>
									<Node id="32" score="1" recordCount="391.0">
										<SimplePredicate field="double(float(com.highradius.ai.jpmml.functions.HistoryXref(product_category)))" operator="greaterThan" value="0.40525001287460327"/>
										<ScoreDistribution value="-1" recordCount="142.0"/>
										<ScoreDistribution value="1" recordCount="249.0"/>
									</Node>
								</Node>
								<Node id="33" score="-1" recordCount="721.0">
									<SimplePredicate field="double(float(com.highradius.ai.jpmml.functions.HistoryXref(product_category)))" operator="greaterThan" value="0.4352499842643738"/>
									<ScoreDistribution value="-1" recordCount="399.0"/>
									<ScoreDistribution value="1" recordCount="322.0"/>
								</Node>
							</Node>
						</Node>
					</Node>
				</TreeModel>
			</Segment>
			<Segment id="6">
				<True/>
				<TreeModel functionName="classification" splitCharacteristic="binarySplit">
					<MiningSchema>
						<MiningField name="product_category"/>
					</MiningSchema>
					<Node id="1">
						<True/>
						<Node id="2">
							<SimplePredicate field="double(float(com.highradius.ai.jpmml.functions.HistoryXref(product_category)))" operator="lessOrEqual" value="0.27535000443458557"/>
							<Node id="3">
								<SimplePredicate field="double(float(com.highradius.ai.jpmml.functions.HistoryXref(product_category)))" operator="lessOrEqual" value="0.08285000175237656"/>
								<Node id="4" score="1" recordCount="22782.0">
									<SimplePredicate field="double(float(com.highradius.ai.jpmml.functions.HistoryXref(product_category)))" operator="lessOrEqual" value="0.025150001049041748"/>
									<ScoreDistribution value="-1" recordCount="59.0"/>
									<ScoreDistribution value="1" recordCount="22723.0"/>
								</Node>
								<Node id="5" score="1" recordCount="5743.0">
									<SimplePredicate field="double(float(com.highradius.ai.jpmml.functions.HistoryXref(product_category)))" operator="greaterThan" value="0.025150001049041748"/>
									<ScoreDistribution value="-1" recordCount="290.0"/>
									<ScoreDistribution value="1" recordCount="5453.0"/>
								</Node>
							</Node>
							<Node id="6">
								<SimplePredicate field="double(float(com.highradius.ai.jpmml.functions.HistoryXref(product_category)))" operator="greaterThan" value="0.08285000175237656"/>
								<Node id="7" score="1" recordCount="13792.0">
									<SimplePredicate field="double(float(com.highradius.ai.jpmml.functions.HistoryXref(product_category)))" operator="lessOrEqual" value="0.12849999964237213"/>
									<ScoreDistribution value="-1" recordCount="1662.0"/>
									<ScoreDistribution value="1" recordCount="12130.0"/>
								</Node>
								<Node id="8">
									<SimplePredicate field="double(float(com.highradius.ai.jpmml.functions.HistoryXref(product_category)))" operator="greaterThan" value="0.12849999964237213"/>
									<Node id="9">
										<SimplePredicate field="double(float(com.highradius.ai.jpmml.functions.HistoryXref(product_category)))" operator="lessOrEqual" value="0.21594999730587006"/>
										<Node id="10">
											<SimplePredicate field="double(float(com.highradius.ai.jpmml.functions.HistoryXref(product_category)))" operator="lessOrEqual" value="0.16940000653266907"/>
											<Node id="11" score="-1" recordCount="1.0">
												<SimplePredicate field="double(float(com.highradius.ai.jpmml.functions.HistoryXref(product_category)))" operator="lessOrEqual" value="0.15109999477863312"/>
												<ScoreDistribution value="-1" recordCount="1.0"/>
												<ScoreDistribution value="1" recordCount="0.0"/>
											</Node>
											<Node id="12" score="1" recordCount="25616.0">
												<SimplePredicate field="double(float(com.highradius.ai.jpmml.functions.HistoryXref(product_category)))" operator="greaterThan" value="0.15109999477863312"/>
												<ScoreDistribution value="-1" recordCount="5002.0"/>
												<ScoreDistribution value="1" recordCount="20614.0"/>
											</Node>
										</Node>
										<Node id="13">
											<SimplePredicate field="double(float(com.highradius.ai.jpmml.functions.HistoryXref(product_category)))" operator="greaterThan" value="0.16940000653266907"/>
											<Node id="14" score="1" recordCount="4480.0">
												<SimplePredicate field="double(float(com.highradius.ai.jpmml.functions.HistoryXref(product_category)))" operator="lessOrEqual" value="0.18290001153945923"/>
												<ScoreDistribution value="-1" recordCount="669.0"/>
												<ScoreDistribution value="1" recordCount="3811.0"/>
											</Node>
											<Node id="15">
												<SimplePredicate field="double(float(com.highradius.ai.jpmml.functions.HistoryXref(product_category)))" operator="greaterThan" value="0.18290001153945923"/>
												<Node id="16" score="1" recordCount="4052.0">
													<SimplePredicate field="double(float(com.highradius.ai.jpmml.functions.HistoryXref(product_category)))" operator="lessOrEqual" value="0.19769999384880066"/>
													<ScoreDistribution value="-1" recordCount="852.0"/>
													<ScoreDistribution value="1" recordCount="3200.0"/>
												</Node>
												<Node id="17" score="1" recordCount="2165.0">
													<SimplePredicate field="double(float(com.highradius.ai.jpmml.functions.HistoryXref(product_category)))" operator="greaterThan" value="0.19769999384880066"/>
													<ScoreDistribution value="-1" recordCount="366.0"/>
													<ScoreDistribution value="1" recordCount="1799.0"/>
												</Node>
											</Node>
										</Node>
									</Node>
									<Node id="18">
										<SimplePredicate field="double(float(com.highradius.ai.jpmml.functions.HistoryXref(product_category)))" operator="greaterThan" value="0.21594999730587006"/>
										<Node id="19">
											<SimplePredicate field="double(float(com.highradius.ai.jpmml.functions.HistoryXref(product_category)))" operator="lessOrEqual" value="0.22830000519752502"/>
											<Node id="20" score="1" recordCount="7368.0">
												<SimplePredicate field="double(float(com.highradius.ai.jpmml.functions.HistoryXref(product_category)))" operator="lessOrEqual" value="0.22689999639987946"/>
												<ScoreDistribution value="-1" recordCount="1835.0"/>
												<ScoreDistribution value="1" recordCount="5533.0"/>
											</Node>
											<Node id="21" score="1" recordCount="2031.0">
												<SimplePredicate field="double(float(com.highradius.ai.jpmml.functions.HistoryXref(product_category)))" operator="greaterThan" value="0.22689999639987946"/>
												<ScoreDistribution value="-1" recordCount="488.0"/>
												<ScoreDistribution value="1" recordCount="1543.0"/>
											</Node>
										</Node>
										<Node id="22">
											<SimplePredicate field="double(float(com.highradius.ai.jpmml.functions.HistoryXref(product_category)))" operator="greaterThan" value="0.22830000519752502"/>
											<Node id="23" score="1" recordCount="2146.0">
												<SimplePredicate field="double(float(com.highradius.ai.jpmml.functions.HistoryXref(product_category)))" operator="lessOrEqual" value="0.24869999289512634"/>
												<ScoreDistribution value="-1" recordCount="402.0"/>
												<ScoreDistribution value="1" recordCount="1744.0"/>
											</Node>
											<Node id="24" score="1" recordCount="6984.0">
												<SimplePredicate field="double(float(com.highradius.ai.jpmml.functions.HistoryXref(product_category)))" operator="greaterThan" value="0.24869999289512634"/>
												<ScoreDistribution value="-1" recordCount="1277.0"/>
												<ScoreDistribution value="1" recordCount="5707.0"/>
											</Node>
										</Node>
									</Node>
								</Node>
							</Node>
						</Node>
						<Node id="25">
							<SimplePredicate field="double(float(com.highradius.ai.jpmml.functions.HistoryXref(product_category)))" operator="greaterThan" value="0.27535000443458557"/>
							<Node id="26">
								<SimplePredicate field="double(float(com.highradius.ai.jpmml.functions.HistoryXref(product_category)))" operator="lessOrEqual" value="0.36390000581741333"/>
								<Node id="27" score="1" recordCount="873.0">
									<SimplePredicate field="double(float(com.highradius.ai.jpmml.functions.HistoryXref(product_category)))" operator="lessOrEqual" value="0.31314998865127563"/>
									<ScoreDistribution value="-1" recordCount="237.0"/>
									<ScoreDistribution value="1" recordCount="636.0"/>
								</Node>
								<Node id="28" score="1" recordCount="5778.0">
									<SimplePredicate field="double(float(com.highradius.ai.jpmml.functions.HistoryXref(product_category)))" operator="greaterThan" value="0.31314998865127563"/>
									<ScoreDistribution value="-1" recordCount="1729.0"/>
									<ScoreDistribution value="1" recordCount="4049.0"/>
								</Node>
							</Node>
							<Node id="29">
								<SimplePredicate field="double(float(com.highradius.ai.jpmml.functions.HistoryXref(product_category)))" operator="greaterThan" value="0.36390000581741333"/>
								<Node id="30">
									<SimplePredicate field="double(float(com.highradius.ai.jpmml.functions.HistoryXref(product_category)))" operator="lessOrEqual" value="0.4352499842643738"/>
									<Node id="31" score="1" recordCount="23017.0">
										<SimplePredicate field="double(float(com.highradius.ai.jpmml.functions.HistoryXref(product_category)))" operator="lessOrEqual" value="0.40525001287460327"/>
										<ScoreDistribution value="-1" recordCount="10005.0"/>
										<ScoreDistribution value="1" recordCount="13012.0"/>
									</Node>
									<Node id="32" score="1" recordCount="409.0">
										<SimplePredicate field="double(float(com.highradius.ai.jpmml.functions.HistoryXref(product_category)))" operator="greaterThan" value="0.40525001287460327"/>
										<ScoreDistribution value="-1" recordCount="175.0"/>
										<ScoreDistribution value="1" recordCount="234.0"/>
									</Node>
								</Node>
								<Node id="33" score="-1" recordCount="691.0">
									<SimplePredicate field="double(float(com.highradius.ai.jpmml.functions.HistoryXref(product_category)))" operator="greaterThan" value="0.4352499842643738"/>
									<ScoreDistribution value="-1" recordCount="374.0"/>
									<ScoreDistribution value="1" recordCount="317.0"/>
								</Node>
							</Node>
						</Node>
					</Node>
				</TreeModel>
			</Segment>
			<Segment id="7">
				<True/>
				<TreeModel functionName="classification" splitCharacteristic="binarySplit">
					<MiningSchema>
						<MiningField name="product_category"/>
					</MiningSchema>
					<Node id="1">
						<True/>
						<Node id="2">
							<SimplePredicate field="double(float(com.highradius.ai.jpmml.functions.HistoryXref(product_category)))" operator="lessOrEqual" value="0.27535000443458557"/>
							<Node id="3">
								<SimplePredicate field="double(float(com.highradius.ai.jpmml.functions.HistoryXref(product_category)))" operator="lessOrEqual" value="0.08285000175237656"/>
								<Node id="4" score="1" recordCount="23019.0">
									<SimplePredicate field="double(float(com.highradius.ai.jpmml.functions.HistoryXref(product_category)))" operator="lessOrEqual" value="0.025150001049041748"/>
									<ScoreDistribution value="-1" recordCount="64.0"/>
									<ScoreDistribution value="1" recordCount="22955.0"/>
								</Node>
								<Node id="5" score="1" recordCount="5910.0">
									<SimplePredicate field="double(float(com.highradius.ai.jpmml.functions.HistoryXref(product_category)))" operator="greaterThan" value="0.025150001049041748"/>
									<ScoreDistribution value="-1" recordCount="300.0"/>
									<ScoreDistribution value="1" recordCount="5610.0"/>
								</Node>
							</Node>
							<Node id="6">
								<SimplePredicate field="double(float(com.highradius.ai.jpmml.functions.HistoryXref(product_category)))" operator="greaterThan" value="0.08285000175237656"/>
								<Node id="7" score="1" recordCount="13517.0">
									<SimplePredicate field="double(float(com.highradius.ai.jpmml.functions.HistoryXref(product_category)))" operator="lessOrEqual" value="0.12849999964237213"/>
									<ScoreDistribution value="-1" recordCount="1675.0"/>
									<ScoreDistribution value="1" recordCount="11842.0"/>
								</Node>
								<Node id="8">
									<SimplePredicate field="double(float(com.highradius.ai.jpmml.functions.HistoryXref(product_category)))" operator="greaterThan" value="0.12849999964237213"/>
									<Node id="9">
										<SimplePredicate field="double(float(com.highradius.ai.jpmml.functions.HistoryXref(product_category)))" operator="lessOrEqual" value="0.18290001153945923"/>
										<Node id="10">
											<SimplePredicate field="double(float(com.highradius.ai.jpmml.functions.HistoryXref(product_category)))" operator="lessOrEqual" value="0.16940000653266907"/>
											<Node id="11" score="-1" recordCount="1.0">
												<SimplePredicate field="double(float(com.highradius.ai.jpmml.functions.HistoryXref(product_category)))" operator="lessOrEqual" value="0.15109999477863312"/>
												<ScoreDistribution value="-1" recordCount="1.0"/>
												<ScoreDistribution value="1" recordCount="0.0"/>
											</Node>
											<Node id="12" score="1" recordCount="25676.0">
												<SimplePredicate field="double(float(com.highradius.ai.jpmml.functions.HistoryXref(product_category)))" operator="greaterThan" value="0.15109999477863312"/>
												<ScoreDistribution value="-1" recordCount="5027.0"/>
												<ScoreDistribution value="1" recordCount="20649.0"/>
											</Node>
										</Node>
										<Node id="13" score="1" recordCount="4434.0">
											<SimplePredicate field="double(float(com.highradius.ai.jpmml.functions.HistoryXref(product_category)))" operator="greaterThan" value="0.16940000653266907"/>
											<ScoreDistribution value="-1" recordCount="640.0"/>
											<ScoreDistribution value="1" recordCount="3794.0"/>
										</Node>
									</Node>
									<Node id="14">
										<SimplePredicate field="double(float(com.highradius.ai.jpmml.functions.HistoryXref(product_category)))" operator="greaterThan" value="0.18290001153945923"/>
										<Node id="15">
											<SimplePredicate field="double(float(com.highradius.ai.jpmml.functions.HistoryXref(product_category)))" operator="lessOrEqual" value="0.22830000519752502"/>
											<Node id="16">
												<SimplePredicate field="double(float(com.highradius.ai.jpmml.functions.HistoryXref(product_category)))" operator="lessOrEqual" value="0.21594999730587006"/>
												<Node id="17" score="1" recordCount="4066.0">
													<SimplePredicate field="double(float(com.highradius.ai.jpmml.functions.HistoryXref(product_category)))" operator="lessOrEqual" value="0.19769999384880066"/>
													<ScoreDistribution value="-1" recordCount="902.0"/>
													<ScoreDistribution value="1" recordCount="3164.0"/>
												</Node>
												<Node id="18" score="1" recordCount="2259.0">
													<SimplePredicate field="double(float(com.highradius.ai.jpmml.functions.HistoryXref(product_category)))" operator="greaterThan" value="0.19769999384880066"/>
													<ScoreDistribution value="-1" recordCount="419.0"/>
													<ScoreDistribution value="1" recordCount="1840.0"/>
												</Node>
											</Node>
											<Node id="19">
												<SimplePredicate field="double(float(com.highradius.ai.jpmml.functions.HistoryXref(product_category)))" operator="greaterThan" value="0.21594999730587006"/>
												<Node id="20" score="1" recordCount="7273.0">
													<SimplePredicate field="double(float(com.highradius.ai.jpmml.functions.HistoryXref(product_category)))" operator="lessOrEqual" value="0.22689999639987946"/>
													<ScoreDistribution value="-1" recordCount="1751.0"/>
													<ScoreDistribution value="1" recordCount="5522.0"/>
												</Node>
												<Node id="21" score="1" recordCount="2049.0">
													<SimplePredicate field="double(float(com.highradius.ai.jpmml.functions.HistoryXref(product_category)))" operator="greaterThan" value="0.22689999639987946"/>
													<ScoreDistribution value="-1" recordCount="501.0"/>
													<ScoreDistribution value="1" recordCount="1548.0"/>
												</Node>
											</Node>
										</Node>
										<Node id="22">
											<SimplePredicate field="double(float(com.highradius.ai.jpmml.functions.HistoryXref(product_category)))" operator="greaterThan" value="0.22830000519752502"/>
											<Node id="23" score="1" recordCount="2193.0">
												<SimplePredicate field="double(float(com.highradius.ai.jpmml.functions.HistoryXref(product_category)))" operator="lessOrEqual" value="0.24869999289512634"/>
												<ScoreDistribution value="-1" recordCount="404.0"/>
												<ScoreDistribution value="1" recordCount="1789.0"/>
											</Node>
											<Node id="24" score="1" recordCount="6820.0">
												<SimplePredicate field="double(float(com.highradius.ai.jpmml.functions.HistoryXref(product_category)))" operator="greaterThan" value="0.24869999289512634"/>
												<ScoreDistribution value="-1" recordCount="1243.0"/>
												<ScoreDistribution value="1" recordCount="5577.0"/>
											</Node>
										</Node>
									</Node>
								</Node>
							</Node>
						</Node>
						<Node id="25">
							<SimplePredicate field="double(float(com.highradius.ai.jpmml.functions.HistoryXref(product_category)))" operator="greaterThan" value="0.27535000443458557"/>
							<Node id="26">
								<SimplePredicate field="double(float(com.highradius.ai.jpmml.functions.HistoryXref(product_category)))" operator="lessOrEqual" value="0.36390000581741333"/>
								<Node id="27" score="1" recordCount="853.0">
									<SimplePredicate field="double(float(com.highradius.ai.jpmml.functions.HistoryXref(product_category)))" operator="lessOrEqual" value="0.31314998865127563"/>
									<ScoreDistribution value="-1" recordCount="245.0"/>
									<ScoreDistribution value="1" recordCount="608.0"/>
								</Node>
								<Node id="28" score="1" recordCount="5818.0">
									<SimplePredicate field="double(float(com.highradius.ai.jpmml.functions.HistoryXref(product_category)))" operator="greaterThan" value="0.31314998865127563"/>
									<ScoreDistribution value="-1" recordCount="1752.0"/>
									<ScoreDistribution value="1" recordCount="4066.0"/>
								</Node>
							</Node>
							<Node id="29">
								<SimplePredicate field="double(float(com.highradius.ai.jpmml.functions.HistoryXref(product_category)))" operator="greaterThan" value="0.36390000581741333"/>
								<Node id="30">
									<SimplePredicate field="double(float(com.highradius.ai.jpmml.functions.HistoryXref(product_category)))" operator="lessOrEqual" value="0.4352499842643738"/>
									<Node id="31" score="1" recordCount="22869.0">
										<SimplePredicate field="double(float(com.highradius.ai.jpmml.functions.HistoryXref(product_category)))" operator="lessOrEqual" value="0.40525001287460327"/>
										<ScoreDistribution value="-1" recordCount="10014.0"/>
										<ScoreDistribution value="1" recordCount="12855.0"/>
									</Node>
									<Node id="32" score="1" recordCount="432.0">
										<SimplePredicate field="double(float(com.highradius.ai.jpmml.functions.HistoryXref(product_category)))" operator="greaterThan" value="0.40525001287460327"/>
										<ScoreDistribution value="-1" recordCount="169.0"/>
										<ScoreDistribution value="1" recordCount="263.0"/>
									</Node>
								</Node>
								<Node id="33" score="-1" recordCount="739.0">
									<SimplePredicate field="double(float(com.highradius.ai.jpmml.functions.HistoryXref(product_category)))" operator="greaterThan" value="0.4352499842643738"/>
									<ScoreDistribution value="-1" recordCount="380.0"/>
									<ScoreDistribution value="1" recordCount="359.0"/>
								</Node>
							</Node>
						</Node>
					</Node>
				</TreeModel>
			</Segment>
			<Segment id="8">
				<True/>
				<TreeModel functionName="classification" splitCharacteristic="binarySplit">
					<MiningSchema>
						<MiningField name="product_category"/>
					</MiningSchema>
					<Node id="1">
						<True/>
						<Node id="2">
							<SimplePredicate field="double(float(com.highradius.ai.jpmml.functions.HistoryXref(product_category)))" operator="lessOrEqual" value="0.31314998865127563"/>
							<Node id="3">
								<SimplePredicate field="double(float(com.highradius.ai.jpmml.functions.HistoryXref(product_category)))" operator="lessOrEqual" value="0.08285000175237656"/>
								<Node id="4" score="1" recordCount="23027.0">
									<SimplePredicate field="double(float(com.highradius.ai.jpmml.functions.HistoryXref(product_category)))" operator="lessOrEqual" value="0.025150001049041748"/>
									<ScoreDistribution value="-1" recordCount="67.0"/>
									<ScoreDistribution value="1" recordCount="22960.0"/>
								</Node>
								<Node id="5" score="1" recordCount="5881.0">
									<SimplePredicate field="double(float(com.highradius.ai.jpmml.functions.HistoryXref(product_category)))" operator="greaterThan" value="0.025150001049041748"/>
									<ScoreDistribution value="-1" recordCount="298.0"/>
									<ScoreDistribution value="1" recordCount="5583.0"/>
								</Node>
							</Node>
							<Node id="6">
								<SimplePredicate field="double(float(com.highradius.ai.jpmml.functions.HistoryXref(product_category)))" operator="greaterThan" value="0.08285000175237656"/>
								<Node id="7" score="1" recordCount="13650.0">
									<SimplePredicate field="double(float(com.highradius.ai.jpmml.functions.HistoryXref(product_category)))" operator="lessOrEqual" value="0.12849999964237213"/>
									<ScoreDistribution value="-1" recordCount="1797.0"/>
									<ScoreDistribution value="1" recordCount="11853.0"/>
								</Node>
								<Node id="8">
									<SimplePredicate field="double(float(com.highradius.ai.jpmml.functions.HistoryXref(product_category)))" operator="greaterThan" value="0.12849999964237213"/>
									<Node id="9">
										<SimplePredicate field="double(float(com.highradius.ai.jpmml.functions.HistoryXref(product_category)))" operator="lessOrEqual" value="0.18290001153945923"/>
										<Node id="10">
											<SimplePredicate field="double(float(com.highradius.ai.jpmml.functions.HistoryXref(product_category)))" operator="lessOrEqual" value="0.16940000653266907"/>
											<Node id="11" score="-1" recordCount="1.0">
												<SimplePredicate field="double(float(com.highradius.ai.jpmml.functions.HistoryXref(product_category)))" operator="lessOrEqual" value="0.15109999477863312"/>
												<ScoreDistribution value="-1" recordCount="1.0"/>
												<ScoreDistribution value="1" recordCount="0.0"/>
											</Node>
											<Node id="12" score="1" recordCount="25605.0">
												<SimplePredicate field="double(float(com.highradius.ai.jpmml.functions.HistoryXref(product_category)))" operator="greaterThan" value="0.15109999477863312"/>
												<ScoreDistribution value="-1" recordCount="5019.0"/>
												<ScoreDistribution value="1" recordCount="20586.0"/>
											</Node>
										</Node>
										<Node id="13" score="1" recordCount="4544.0">
											<SimplePredicate field="double(float(com.highradius.ai.jpmml.functions.HistoryXref(product_category)))" operator="greaterThan" value="0.16940000653266907"/>
											<ScoreDistribution value="-1" recordCount="690.0"/>
											<ScoreDistribution value="1" recordCount="3854.0"/>
										</Node>
									</Node>
									<Node id="14">
										<SimplePredicate field="double(float(com.highradius.ai.jpmml.functions.HistoryXref(product_category)))" operator="greaterThan" value="0.18290001153945923"/>
										<Node id="15">
											<SimplePredicate field="double(float(com.highradius.ai.jpmml.functions.HistoryXref(product_category)))" operator="lessOrEqual" value="0.22830000519752502"/>
											<Node id="16">
												<SimplePredicate field="double(float(com.highradius.ai.jpmml.functions.HistoryXref(product_category)))" operator="lessOrEqual" value="0.21594999730587006"/>
												<Node id="17" score="1" recordCount="4105.0">
													<SimplePredicate field="double(float(com.highradius.ai.jpmml.functions.HistoryXref(product_category)))" operator="lessOrEqual" value="0.19769999384880066"/>
													<ScoreDistribution value="-1" recordCount="933.0"/>
													<ScoreDistribution value="1" recordCount="3172.0"/>
												</Node>
												<Node id="18" score="1" recordCount="2201.0">
													<SimplePredicate field="double(float(com.highradius.ai.jpmml.functions.HistoryXref(product_category)))" operator="greaterThan" value="0.19769999384880066"/>
													<ScoreDistribution value="-1" recordCount="368.0"/>
													<ScoreDistribution value="1" recordCount="1833.0"/>
												</Node>
											</Node>
											<Node id="19">
												<SimplePredicate field="double(float(com.highradius.ai.jpmml.functions.HistoryXref(product_category)))" operator="greaterThan" value="0.21594999730587006"/>
												<Node id="20" score="1" recordCount="7384.0">
													<SimplePredicate field="double(float(com.highradius.ai.jpmml.functions.HistoryXref(product_category)))" operator="lessOrEqual" value="0.22689999639987946"/>
													<ScoreDistribution value="-1" recordCount="1764.0"/>
													<ScoreDistribution value="1" recordCount="5620.0"/>
												</Node>
												<Node id="21" score="1" recordCount="2050.0">
													<SimplePredicate field="double(float(com.highradius.ai.jpmml.functions.HistoryXref(product_category)))" operator="greaterThan" value="0.22689999639987946"/>
													<ScoreDistribution value="-1" recordCount="515.0"/>
													<ScoreDistribution value="1" recordCount="1535.0"/>
												</Node>
											</Node>
										</Node>
										<Node id="22">
											<SimplePredicate field="double(float(com.highradius.ai.jpmml.functions.HistoryXref(product_category)))" operator="greaterThan" value="0.22830000519752502"/>
											<Node id="23">
												<SimplePredicate field="double(float(com.highradius.ai.jpmml.functions.HistoryXref(product_category)))" operator="lessOrEqual" value="0.27535000443458557"/>
												<Node id="24" score="1" recordCount="2164.0">
													<SimplePredicate field="double(float(com.highradius.ai.jpmml.functions.HistoryXref(product_category)))" operator="lessOrEqual" value="0.24869999289512634"/>
													<ScoreDistribution value="-1" recordCount="413.0"/>
													<ScoreDistribution value="1" recordCount="1751.0"/>
												</Node>
												<Node id="25" score="1" recordCount="6889.0">
													<SimplePredicate field="double(float(com.highradius.ai.jpmml.functions.HistoryXref(product_category)))" operator="greaterThan" value="0.24869999289512634"/>
													<ScoreDistribution value="-1" recordCount="1209.0"/>
													<ScoreDistribution value="1" recordCount="5680.0"/>
												</Node>
											</Node>
											<Node id="26" score="1" recordCount="801.0">
												<SimplePredicate field="double(float(com.highradius.ai.jpmml.functions.HistoryXref(product_category)))" operator="greaterThan" value="0.27535000443458557"/>
												<ScoreDistribution value="-1" recordCount="217.0"/>
												<ScoreDistribution value="1" recordCount="584.0"/>
											</Node>
										</Node>
									</Node>
								</Node>
							</Node>
						</Node>
						<Node id="27">
							<SimplePredicate field="double(float(com.highradius.ai.jpmml.functions.HistoryXref(product_category)))" operator="greaterThan" value="0.31314998865127563"/>
							<Node id="28" score="1" recordCount="5760.0">
								<SimplePredicate field="double(float(com.highradius.ai.jpmml.functions.HistoryXref(product_category)))" operator="lessOrEqual" value="0.36390000581741333"/>
								<ScoreDistribution value="-1" recordCount="1742.0"/>
								<ScoreDistribution value="1" recordCount="4018.0"/>
							</Node>
							<Node id="29">
								<SimplePredicate field="double(float(com.highradius.ai.jpmml.functions.HistoryXref(product_category)))" operator="greaterThan" value="0.36390000581741333"/>
								<Node id="30">
									<SimplePredicate field="double(float(com.highradius.ai.jpmml.functions.HistoryXref(product_category)))" operator="lessOrEqual" value="0.4352499842643738"/>
									<Node id="31" score="1" recordCount="22738.0">
										<SimplePredicate field="double(float(com.highradius.ai.jpmml.functions.HistoryXref(product_category)))" operator="lessOrEqual" value="0.40525001287460327"/>
										<ScoreDistribution value="-1" recordCount="9930.0"/>
										<ScoreDistribution value="1" recordCount="12808.0"/>
									</Node>
									<Node id="32" score="1" recordCount="405.0">
										<SimplePredicate field="double(float(com.highradius.ai.jpmml.functions.HistoryXref(product_category)))" operator="greaterThan" value="0.40525001287460327"/>
										<ScoreDistribution value="-1" recordCount="159.0"/>
										<ScoreDistribution value="1" recordCount="246.0"/>
									</Node>
								</Node>
								<Node id="33" score="-1" recordCount="723.0">
									<SimplePredicate field="double(float(com.highradius.ai.jpmml.functions.HistoryXref(product_category)))" operator="greaterThan" value="0.4352499842643738"/>
									<ScoreDistribution value="-1" recordCount="377.0"/>
									<ScoreDistribution value="1" recordCount="346.0"/>
								</Node>
							</Node>
						</Node>
					</Node>
				</TreeModel>
			</Segment>
			<Segment id="9">
				<True/>
				<TreeModel functionName="classification" splitCharacteristic="binarySplit">
					<MiningSchema>
						<MiningField name="product_category"/>
					</MiningSchema>
					<Node id="1">
						<True/>
						<Node id="2">
							<SimplePredicate field="double(float(com.highradius.ai.jpmml.functions.HistoryXref(product_category)))" operator="lessOrEqual" value="0.31314998865127563"/>
							<Node id="3">
								<SimplePredicate field="double(float(com.highradius.ai.jpmml.functions.HistoryXref(product_category)))" operator="lessOrEqual" value="0.08285000175237656"/>
								<Node id="4" score="1" recordCount="23181.0">
									<SimplePredicate field="double(float(com.highradius.ai.jpmml.functions.HistoryXref(product_category)))" operator="lessOrEqual" value="0.025150001049041748"/>
									<ScoreDistribution value="-1" recordCount="58.0"/>
									<ScoreDistribution value="1" recordCount="23123.0"/>
								</Node>
								<Node id="5" score="1" recordCount="6056.0">
									<SimplePredicate field="double(float(com.highradius.ai.jpmml.functions.HistoryXref(product_category)))" operator="greaterThan" value="0.025150001049041748"/>
									<ScoreDistribution value="-1" recordCount="290.0"/>
									<ScoreDistribution value="1" recordCount="5766.0"/>
								</Node>
							</Node>
							<Node id="6">
								<SimplePredicate field="double(float(com.highradius.ai.jpmml.functions.HistoryXref(product_category)))" operator="greaterThan" value="0.08285000175237656"/>
								<Node id="7" score="1" recordCount="13395.0">
									<SimplePredicate field="double(float(com.highradius.ai.jpmml.functions.HistoryXref(product_category)))" operator="lessOrEqual" value="0.14069999754428864"/>
									<ScoreDistribution value="-1" recordCount="1623.0"/>
									<ScoreDistribution value="1" recordCount="11772.0"/>
								</Node>
								<Node id="8">
									<SimplePredicate field="double(float(com.highradius.ai.jpmml.functions.HistoryXref(product_category)))" operator="greaterThan" value="0.14069999754428864"/>
									<Node id="9">
										<SimplePredicate field="double(float(com.highradius.ai.jpmml.functions.HistoryXref(product_category)))" operator="lessOrEqual" value="0.21594999730587006"/>
										<Node id="10" score="1" recordCount="25293.0">
											<SimplePredicate field="double(float(com.highradius.ai.jpmml.functions.HistoryXref(product_category)))" operator="lessOrEqual" value="0.16940000653266907"/>
											<ScoreDistribution value="-1" recordCount="5021.0"/>
											<ScoreDistribution value="1" recordCount="20272.0"/>
										</Node>
										<Node id="11">
											<SimplePredicate field="double(float(com.highradius.ai.jpmml.functions.HistoryXref(product_category)))" operator="greaterThan" value="0.16940000653266907"/>
											<Node id="12" score="1" recordCount="4590.0">
												<SimplePredicate field="double(float(com.highradius.ai.jpmml.functions.HistoryXref(product_category)))" operator="lessOrEqual" value="0.18290001153945923"/>
												<ScoreDistribution value="-1" recordCount="660.0"/>
												<ScoreDistribution value="1" recordCount="3930.0"/>
											</Node>
											<Node id="13">
												<SimplePredicate field="double(float(com.highradius.ai.jpmml.functions.HistoryXref(product_category)))" operator="greaterThan" value="0.18290001153945923"/>
												<Node id="14" score="1" recordCount="4119.0">
													<SimplePredicate field="double(float(com.highradius.ai.jpmml.functions.HistoryXref(product_category)))" operator="lessOrEqual" value="0.19769999384880066"/>
													<ScoreDistribution value="-1" recordCount="889.0"/>
													<ScoreDistribution value="1" recordCount="3230.0"/>
												</Node>
												<Node id="15" score="1" recordCount="2208.0">
													<SimplePredicate field="double(float(com.highradius.ai.jpmml.functions.HistoryXref(product_category)))" operator="greaterThan" value="0.19769999384880066"/>
													<ScoreDistribution value="-1" recordCount="361.0"/>
													<ScoreDistribution value="1" recordCount="1847.0"/>
												</Node>
											</Node>
										</Node>
									</Node>
									<Node id="16">
										<SimplePredicate field="double(float(com.highradius.ai.jpmml.functions.HistoryXref(product_category)))" operator="greaterThan" value="0.21594999730587006"/>
										<Node id="17">
											<SimplePredicate field="double(float(com.highradius.ai.jpmml.functions.HistoryXref(product_category)))" operator="lessOrEqual" value="0.22830000519752502"/>
											<Node id="18" score="1" recordCount="7332.0">
												<SimplePredicate field="double(float(com.highradius.ai.jpmml.functions.HistoryXref(product_category)))" operator="lessOrEqual" value="0.22689999639987946"/>
												<ScoreDistribution value="-1" recordCount="1819.0"/>
												<ScoreDistribution value="1" recordCount="5513.0"/>
											</Node>
											<Node id="19" score="1" recordCount="2034.0">
												<SimplePredicate field="double(float(com.highradius.ai.jpmml.functions.HistoryXref(product_category)))" operator="greaterThan" value="0.22689999639987946"/>
												<ScoreDistribution value="-1" recordCount="514.0"/>
												<ScoreDistribution value="1" recordCount="1520.0"/>
											</Node>
										</Node>
										<Node id="20">
											<SimplePredicate field="double(float(com.highradius.ai.jpmml.functions.HistoryXref(product_category)))" operator="greaterThan" value="0.22830000519752502"/>
											<Node id="21">
												<SimplePredicate field="double(float(com.highradius.ai.jpmml.functions.HistoryXref(product_category)))" operator="lessOrEqual" value="0.27535000443458557"/>
												<Node id="22" score="1" recordCount="2130.0">
													<SimplePredicate field="double(float(com.highradius.ai.jpmml.functions.HistoryXref(product_category)))" operator="lessOrEqual" value="0.24869999289512634"/>
													<ScoreDistribution value="-1" recordCount="407.0"/>
													<ScoreDistribution value="1" recordCount="1723.0"/>
												</Node>
												<Node id="23" score="1" recordCount="6947.0">
													<SimplePredicate field="double(float(com.highradius.ai.jpmml.functions.HistoryXref(product_category)))" operator="greaterThan" value="0.24869999289512634"/>
													<ScoreDistribution value="-1" recordCount="1171.0"/>
													<ScoreDistribution value="1" recordCount="5776.0"/>
												</Node>
											</Node>
											<Node id="24" score="1" recordCount="836.0">
												<SimplePredicate field="double(float(com.highradius.ai.jpmml.functions.HistoryXref(product_category)))" operator="greaterThan" value="0.27535000443458557"/>
												<ScoreDistribution value="-1" recordCount="224.0"/>
												<ScoreDistribution value="1" recordCount="612.0"/>
											</Node>
										</Node>
									</Node>
								</Node>
							</Node>
						</Node>
						<Node id="25">
							<SimplePredicate field="double(float(com.highradius.ai.jpmml.functions.HistoryXref(product_category)))" operator="greaterThan" value="0.31314998865127563"/>
							<Node id="26" score="1" recordCount="5746.0">
								<SimplePredicate field="double(float(com.highradius.ai.jpmml.functions.HistoryXref(product_category)))" operator="lessOrEqual" value="0.36390000581741333"/>
								<ScoreDistribution value="-1" recordCount="1693.0"/>
								<ScoreDistribution value="1" recordCount="4053.0"/>
							</Node>
							<Node id="27">
								<SimplePredicate field="double(float(com.highradius.ai.jpmml.functions.HistoryXref(product_category)))" operator="greaterThan" value="0.36390000581741333"/>
								<Node id="28">
									<SimplePredicate field="double(float(com.highradius.ai.jpmml.functions.HistoryXref(product_category)))" operator="lessOrEqual" value="0.4352499842643738"/>
									<Node id="29" score="1" recordCount="22886.0">
										<SimplePredicate field="double(float(com.highradius.ai.jpmml.functions.HistoryXref(product_category)))" operator="lessOrEqual" value="0.40525001287460327"/>
										<ScoreDistribution value="-1" recordCount="9864.0"/>
										<ScoreDistribution value="1" recordCount="13022.0"/>
									</Node>
									<Node id="30" score="1" recordCount="441.0">
										<SimplePredicate field="double(float(com.highradius.ai.jpmml.functions.HistoryXref(product_category)))" operator="greaterThan" value="0.40525001287460327"/>
										<ScoreDistribution value="-1" recordCount="171.0"/>
										<ScoreDistribution value="1" recordCount="270.0"/>
									</Node>
								</Node>
								<Node id="31" score="-1" recordCount="734.0">
									<SimplePredicate field="double(float(com.highradius.ai.jpmml.functions.HistoryXref(product_category)))" operator="greaterThan" value="0.4352499842643738"/>
									<ScoreDistribution value="-1" recordCount="372.0"/>
									<ScoreDistribution value="1" recordCount="362.0"/>
								</Node>
							</Node>
						</Node>
					</Node>
				</TreeModel>
			</Segment>
			<Segment id="10">
				<True/>
				<TreeModel functionName="classification" splitCharacteristic="binarySplit">
					<MiningSchema>
						<MiningField name="product_category"/>
					</MiningSchema>
					<Node id="1">
						<True/>
						<Node id="2">
							<SimplePredicate field="double(float(com.highradius.ai.jpmml.functions.HistoryXref(product_category)))" operator="lessOrEqual" value="0.27535000443458557"/>
							<Node id="3">
								<SimplePredicate field="double(float(com.highradius.ai.jpmml.functions.HistoryXref(product_category)))" operator="lessOrEqual" value="0.08285000175237656"/>
								<Node id="4" score="1" recordCount="22956.0">
									<SimplePredicate field="double(float(com.highradius.ai.jpmml.functions.HistoryXref(product_category)))" operator="lessOrEqual" value="0.025150001049041748"/>
									<ScoreDistribution value="-1" recordCount="72.0"/>
									<ScoreDistribution value="1" recordCount="22884.0"/>
								</Node>
								<Node id="5" score="1" recordCount="5879.0">
									<SimplePredicate field="double(float(com.highradius.ai.jpmml.functions.HistoryXref(product_category)))" operator="greaterThan" value="0.025150001049041748"/>
									<ScoreDistribution value="-1" recordCount="293.0"/>
									<ScoreDistribution value="1" recordCount="5586.0"/>
								</Node>
							</Node>
							<Node id="6">
								<SimplePredicate field="double(float(com.highradius.ai.jpmml.functions.HistoryXref(product_category)))" operator="greaterThan" value="0.08285000175237656"/>
								<Node id="7" score="1" recordCount="13611.0">
									<SimplePredicate field="double(float(com.highradius.ai.jpmml.functions.HistoryXref(product_category)))" operator="lessOrEqual" value="0.12849999964237213"/>
									<ScoreDistribution value="-1" recordCount="1718.0"/>
									<ScoreDistribution value="1" recordCount="11893.0"/>
								</Node>
								<Node id="8">
									<SimplePredicate field="double(float(com.highradius.ai.jpmml.functions.HistoryXref(product_category)))" operator="greaterThan" value="0.12849999964237213"/>
									<Node id="9">
										<SimplePredicate field="double(float(com.highradius.ai.jpmml.functions.HistoryXref(product_category)))" operator="lessOrEqual" value="0.18290001153945923"/>
										<Node id="10">
											<SimplePredicate field="double(float(com.highradius.ai.jpmml.functions.HistoryXref(product_category)))" operator="lessOrEqual" value="0.16940000653266907"/>
											<Node id="11" score="-1" recordCount="1.0">
												<SimplePredicate field="double(float(com.highradius.ai.jpmml.functions.HistoryXref(product_category)))" operator="lessOrEqual" value="0.15109999477863312"/>
												<ScoreDistribution value="-1" recordCount="1.0"/>
												<ScoreDistribution value="1" recordCount="0.0"/>
											</Node>
											<Node id="12" score="1" recordCount="25641.0">
												<SimplePredicate field="double(float(com.highradius.ai.jpmml.functions.HistoryXref(product_category)))" operator="greaterThan" value="0.15109999477863312"/>
												<ScoreDistribution value="-1" recordCount="5006.0"/>
												<ScoreDistribution value="1" recordCount="20635.0"/>
											</Node>
										</Node>
										<Node id="13" score="1" recordCount="4455.0">
											<SimplePredicate field="double(float(com.highradius.ai.jpmml.functions.HistoryXref(product_category)))" operator="greaterThan" value="0.16940000653266907"/>
											<ScoreDistribution value="-1" recordCount="607.0"/>
											<ScoreDistribution value="1" recordCount="3848.0"/>
										</Node>
									</Node>
									<Node id="14">
										<SimplePredicate field="double(float(com.highradius.ai.jpmml.functions.HistoryXref(product_category)))" operator="greaterThan" value="0.18290001153945923"/>
										<Node id="15">
											<SimplePredicate field="double(float(com.highradius.ai.jpmml.functions.HistoryXref(product_category)))" operator="lessOrEqual" value="0.22830000519752502"/>
											<Node id="16">
												<SimplePredicate field="double(float(com.highradius.ai.jpmml.functions.HistoryXref(product_category)))" operator="lessOrEqual" value="0.21594999730587006"/>
												<Node id="17" score="1" recordCount="4098.0">
													<SimplePredicate field="double(float(com.highradius.ai.jpmml.functions.HistoryXref(product_category)))" operator="lessOrEqual" value="0.19769999384880066"/>
													<ScoreDistribution value="-1" recordCount="902.0"/>
													<ScoreDistribution value="1" recordCount="3196.0"/>
												</Node>
												<Node id="18" score="1" recordCount="2117.0">
													<SimplePredicate field="double(float(com.highradius.ai.jpmml.functions.HistoryXref(product_category)))" operator="greaterThan" value="0.19769999384880066"/>
													<ScoreDistribution value="-1" recordCount="379.0"/>
													<ScoreDistribution value="1" recordCount="1738.0"/>
												</Node>
											</Node>
											<Node id="19">
												<SimplePredicate field="double(float(com.highradius.ai.jpmml.functions.HistoryXref(product_category)))" operator="greaterThan" value="0.21594999730587006"/>
												<Node id="20" score="1" recordCount="7354.0">
													<SimplePredicate field="double(float(com.highradius.ai.jpmml.functions.HistoryXref(product_category)))" operator="lessOrEqual" value="0.22689999639987946"/>
													<ScoreDistribution value="-1" recordCount="1778.0"/>
													<ScoreDistribution value="1" recordCount="5576.0"/>
												</Node>
												<Node id="21" score="1" recordCount="2037.0">
													<SimplePredicate field="double(float(com.highradius.ai.jpmml.functions.HistoryXref(product_category)))" operator="greaterThan" value="0.22689999639987946"/>
													<ScoreDistribution value="-1" recordCount="519.0"/>
													<ScoreDistribution value="1" recordCount="1518.0"/>
												</Node>
											</Node>
										</Node>
										<Node id="22">
											<SimplePredicate field="double(float(com.highradius.ai.jpmml.functions.HistoryXref(product_category)))" operator="greaterThan" value="0.22830000519752502"/>
											<Node id="23" score="1" recordCount="2143.0">
												<SimplePredicate field="double(float(com.highradius.ai.jpmml.functions.HistoryXref(product_category)))" operator="lessOrEqual" value="0.24869999289512634"/>
												<ScoreDistribution value="-1" recordCount="361.0"/>
												<ScoreDistribution value="1" recordCount="1782.0"/>
											</Node>
											<Node id="24" score="1" recordCount="6995.0">
												<SimplePredicate field="double(float(com.highradius.ai.jpmml.functions.HistoryXref(product_category)))" operator="greaterThan" value="0.24869999289512634"/>
												<ScoreDistribution value="-1" recordCount="1290.0"/>
												<ScoreDistribution value="1" recordCount="5705.0"/>
											</Node>
										</Node>
									</Node>
								</Node>
							</Node>
						</Node>
						<Node id="25">
							<SimplePredicate field="double(float(com.highradius.ai.jpmml.functions.HistoryXref(product_category)))" operator="greaterThan" value="0.27535000443458557"/>
							<Node id="26">
								<SimplePredicate field="double(float(com.highradius.ai.jpmml.functions.HistoryXref(product_category)))" operator="lessOrEqual" value="0.36390000581741333"/>
								<Node id="27" score="1" recordCount="790.0">
									<SimplePredicate field="double(float(com.highradius.ai.jpmml.functions.HistoryXref(product_category)))" operator="lessOrEqual" value="0.31314998865127563"/>
									<ScoreDistribution value="-1" recordCount="220.0"/>
									<ScoreDistribution value="1" recordCount="570.0"/>
								</Node>
								<Node id="28" score="1" recordCount="5737.0">
									<SimplePredicate field="double(float(com.highradius.ai.jpmml.functions.HistoryXref(product_category)))" operator="greaterThan" value="0.31314998865127563"/>
									<ScoreDistribution value="-1" recordCount="1717.0"/>
									<ScoreDistribution value="1" recordCount="4020.0"/>
								</Node>
							</Node>
							<Node id="29">
								<SimplePredicate field="double(float(com.highradius.ai.jpmml.functions.HistoryXref(product_category)))" operator="greaterThan" value="0.36390000581741333"/>
								<Node id="30">
									<SimplePredicate field="double(float(com.highradius.ai.jpmml.functions.HistoryXref(product_category)))" operator="lessOrEqual" value="0.4352499842643738"/>
									<Node id="31" score="1" recordCount="22907.0">
										<SimplePredicate field="double(float(com.highradius.ai.jpmml.functions.HistoryXref(product_category)))" operator="lessOrEqual" value="0.40525001287460327"/>
										<ScoreDistribution value="-1" recordCount="9993.0"/>
										<ScoreDistribution value="1" recordCount="12914.0"/>
									</Node>
									<Node id="32" score="1" recordCount="405.0">
										<SimplePredicate field="double(float(com.highradius.ai.jpmml.functions.HistoryXref(product_category)))" operator="greaterThan" value="0.40525001287460327"/>
										<ScoreDistribution value="-1" recordCount="159.0"/>
										<ScoreDistribution value="1" recordCount="246.0"/>
									</Node>
								</Node>
								<Node id="33" score="-1" recordCount="802.0">
